digraph Tree {
node [shape=box, fontname="helvetica"] ;
edge [fontname="helvetica"] ;
0 [label="event_T11 Create document X request unlicensed <= 0.5\ngini = 0.493\nsamples = 11495\nvalue = [2582, 7669, 1244]"] ;
1 [label="event_T12 Check document X request unlicensed <= 0.5\ngini = 0.479\nsamples = 11235\nvalue = [2322, 7669, 1244]"] ;
0 -> 1 [labeldistance=2.5, labelangle=45, headlabel="True"] ;
2 [label="event_T14 Determine document X request unlicensed <= 0.5\ngini = 0.465\nsamples = 10993\nvalue = [2080, 7669, 1244]"] ;
1 -> 2 ;
3 [label="event_T15 Print document X request unlicensed <= 0.5\ngini = 0.449\nsamples = 10763\nvalue = [1850, 7669, 1244]"] ;
2 -> 3 ;
4 [label="event_T17 Check report Y to stop indication <= 0.5\ngini = 0.432\nsamples = 10533\nvalue = [1620, 7669, 1244]"] ;
3 -> 4 ;
5 [label="event_T20 Print report Y to stop indication <= 0.5\ngini = 0.419\nsamples = 10382\nvalue = [1620, 7669, 1093]"] ;
4 -> 5 ;
6 [label="event_T19 Determine report Y to stop indication <= 0.5\ngini = 0.408\nsamples = 10267\nvalue = [1620, 7669, 978]"] ;
5 -> 6 ;
7 [label="event_T16 Report reasons to hold request <= 0.5\ngini = 0.397\nsamples = 10152\nvalue = [1620, 7669, 863]"] ;
6 -> 7 ;
8 [label="event_T18 Adjust report Y to stop indicition <= 0.5\ngini = 0.385\nsamples = 10037\nvalue = [1620, 7669, 748]"] ;
7 -> 8 ;
9 [label="event_T13 Adjust document X request unlicensed <= 0.5\ngini = 0.381\nsamples = 10001\nvalue = [1620, 7669, 712]"] ;
8 -> 9 ;
10 [label="event_T07-2 Draft intern advice aspect 2 <= 0.5\ngini = 0.38\nsamples = 9989\nvalue = [1608, 7669, 712]"] ;
9 -> 10 ;
11 [label="event_T08 Draft and send request for advice <= 0.5\ngini = 0.381\nsamples = 9957\nvalue = [1608, 7637, 712]"] ;
10 -> 11 ;
12 [label="event_T07-5 Draft intern advice aspect 5 <= 0.5\ngini = 0.381\nsamples = 9939\nvalue = [1608, 7619, 712]"] ;
11 -> 12 ;
13 [label="event_T07-3 Draft intern advice hold for aspect 3 <= 0.5\ngini = 0.381\nsamples = 9909\nvalue = [1608, 7595, 706]"] ;
12 -> 13 ;
14 [label="event_T09-3 Process or receive external advice from party 3 <= 0.5\ngini = 0.381\nsamples = 9901\nvalue = [1608, 7587, 706]"] ;
13 -> 14 ;
15 [label="event_T09-1 Process or receive external advice from party 1 <= 0.5\ngini = 0.382\nsamples = 9893\nvalue = [1608, 7579, 706]"] ;
14 -> 15 ;
16 [label="event_Confirmation of receipt <= 0.5\ngini = 0.382\nsamples = 9886\nvalue = [1608, 7572, 706]"] ;
15 -> 16 ;
17 [label="event_T07-4 Draft internal advice to hold for type 4 <= 0.5\ngini = 0.385\nsamples = 8186\nvalue = [1348, 6247, 591]"] ;
16 -> 17 ;
18 [label="event_T07-1 Draft intern advice aspect 1 <= 0.5\ngini = 0.386\nsamples = 8180\nvalue = [1348, 6241, 591]"] ;
17 -> 18 ;
19 [label="event_T09-4 Process or receive external advice from party 4 <= 0.5\ngini = 0.386\nsamples = 8128\nvalue = [1336, 6201, 591]"] ;
18 -> 19 ;
20 [label="event_T06 Determine necessity of stop advice <= 0.5\ngini = 0.386\nsamples = 8123\nvalue = [1336, 6196, 591]"] ;
19 -> 20 ;
21 [label="event_T09-2 Process or receive external advice from party 2 <= 0.5\ngini = 0.388\nsamples = 6426\nvalue = [1064, 4892, 470]"] ;
20 -> 21 ;
22 [label="event_T10 Determine necessity to stop indication <= 0.5\ngini = 0.388\nsamples = 6425\nvalue = [1064, 4891, 470]"] ;
21 -> 22 ;
23 [label="event_T03 Adjust confirmation of receipt <= 0.5\ngini = 0.387\nsamples = 4871\nvalue = [804, 3712, 355]"] ;
22 -> 23 ;
24 [label="event_T05 Print and send confirmation of receipt <= 0.5\ngini = 0.387\nsamples = 4802\nvalue = [792, 3660, 350]"] ;
23 -> 24 ;
25 [label="event_T02 Check confirmation of receipt <= 0.5\ngini = 0.386\nsamples = 3231\nvalue = [532, 2464, 235]"] ;
24 -> 25 ;
26 [label="gini = 0.386\nsamples = 1578\nvalue = [260, 1203, 115]"] ;
25 -> 26 ;
27 [label="gini = 0.386\nsamples = 1653\nvalue = [272, 1261, 120]"] ;
25 -> 27 ;
28 [label="gini = 0.388\nsamples = 1571\nvalue = [260, 1196, 115]"] ;
24 -> 28 ;
29 [label="gini = 0.397\nsamples = 69\nvalue = [12, 52, 5]"] ;
23 -> 29 ;
30 [label="gini = 0.391\nsamples = 1554\nvalue = [260, 1179, 115]"] ;
22 -> 30 ;
31 [label="gini = 0.0\nsamples = 1\nvalue = [0, 1, 0]"] ;
21 -> 31 ;
32 [label="gini = 0.379\nsamples = 1697\nvalue = [272, 1304, 121]"] ;
20 -> 32 ;
33 [label="gini = 0.0\nsamples = 5\nvalue = [0, 5, 0]"] ;
19 -> 33 ;
34 [label="gini = 0.355\nsamples = 52\nvalue = [12, 40, 0]"] ;
18 -> 34 ;
35 [label="gini = 0.0\nsamples = 6\nvalue = [0, 6, 0]"] ;
17 -> 35 ;
36 [label="gini = 0.365\nsamples = 1700\nvalue = [260, 1325, 115]"] ;
16 -> 36 ;
37 [label="gini = 0.0\nsamples = 7\nvalue = [0, 7, 0]"] ;
15 -> 37 ;
38 [label="gini = 0.0\nsamples = 8\nvalue = [0, 8, 0]"] ;
14 -> 38 ;
39 [label="gini = 0.0\nsamples = 8\nvalue = [0, 8, 0]"] ;
13 -> 39 ;
40 [label="gini = 0.32\nsamples = 30\nvalue = [0, 24, 6]"] ;
12 -> 40 ;
41 [label="gini = 0.0\nsamples = 18\nvalue = [0, 18, 0]"] ;
11 -> 41 ;
42 [label="gini = 0.0\nsamples = 32\nvalue = [0, 32, 0]"] ;
10 -> 42 ;
43 [label="gini = 0.0\nsamples = 12\nvalue = [12, 0, 0]"] ;
9 -> 43 ;
44 [label="gini = 0.0\nsamples = 36\nvalue = [0, 0, 36]"] ;
8 -> 44 ;
45 [label="gini = 0.0\nsamples = 115\nvalue = [0, 0, 115]"] ;
7 -> 45 ;
46 [label="gini = 0.0\nsamples = 115\nvalue = [0, 0, 115]"] ;
6 -> 46 ;
47 [label="gini = 0.0\nsamples = 115\nvalue = [0, 0, 115]"] ;
5 -> 47 ;
48 [label="gini = 0.0\nsamples = 151\nvalue = [0, 0, 151]"] ;
4 -> 48 ;
49 [label="gini = 0.0\nsamples = 230\nvalue = [230, 0, 0]"] ;
3 -> 49 ;
50 [label="gini = 0.0\nsamples = 230\nvalue = [230, 0, 0]"] ;
2 -> 50 ;
51 [label="gini = 0.0\nsamples = 242\nvalue = [242, 0, 0]"] ;
1 -> 51 ;
52 [label="gini = 0.0\nsamples = 260\nvalue = [260, 0, 0]"] ;
0 -> 52 [labeldistance=2.5, labelangle=-45, headlabel="False"] ;
}
