digraph Tree {
node [shape=box, fontname="helvetica"] ;
edge [fontname="helvetica"] ;
0 [label="concept:name_Confirmation of receipt <= 0.5\ngini = 0.877\nsamples = 11842\nvalue = [1754, 1703, 70, 1627, 1620, 1751, 55, 32, 8, 6, 32\n18, 7, 1, 8, 5, 1603, 264, 246, 12, 234, 234\n120, 156, 36, 120, 120]"] ;
1 [label="concept:name_T06 Determine necessity of stop advice <= 0.5\ngini = 0.861\nsamples = 10088\nvalue = [0, 1703, 70, 1627, 1620, 1751, 55, 32, 8, 6, 32\n18, 7, 1, 8, 5, 1603, 264, 246, 12, 234, 234\n120, 156, 36, 120, 120]"] ;
0 -> 1 [labeldistance=2.5, labelangle=45, headlabel="True"] ;
2 [label="concept:name_T02 Check confirmation of receipt <= 0.5\ngini = 0.841\nsamples = 8337\nvalue = [0, 1703, 70, 1627, 1620, 0, 55, 32, 8, 6, 32, 18\n7, 1, 8, 5, 1603, 264, 246, 12, 234, 234, 120\n156, 36, 120, 120]"] ;
1 -> 2 ;
3 [label="concept:name_T04 Determine confirmation of receipt <= 0.5\ngini = 0.815\nsamples = 6634\nvalue = [0, 0, 70, 1627, 1620, 0, 55, 32, 8, 6, 32, 18\n7, 1, 8, 5, 1603, 264, 246, 12, 234, 234, 120\n156, 36, 120, 120]"] ;
2 -> 3 ;
4 [label="concept:name_T05 Print and send confirmation of receipt <= 0.5\ngini = 0.78\nsamples = 5007\nvalue = [0, 0, 70, 0, 1620, 0, 55, 32, 8, 6, 32, 18, 7\n1, 8, 5, 1603, 264, 246, 12, 234, 234, 120, 156\n36, 120, 120]"] ;
3 -> 4 ;
5 [label="concept:name_T10 Determine necessity to stop indication <= 0.5\ngini = 0.748\nsamples = 3387\nvalue = [0, 0, 70, 0, 0, 0, 55, 32, 8, 6, 32, 18, 7\n1, 8, 5, 1603, 264, 246, 12, 234, 234, 120, 156\n36, 120, 120]"] ;
4 -> 5 ;
6 [label="concept:name_T11 Create document X request unlicensed <= 0.5\ngini = 0.9\nsamples = 1784\nvalue = [0, 0, 70, 0, 0, 0, 55, 32, 8, 6, 32, 18, 7\n1, 8, 5, 0, 264, 246, 12, 234, 234, 120, 156, 36\n120, 120]"] ;
5 -> 6 ;
7 [label="concept:name_T12 Check document X request unlicensed <= 0.5\ngini = 0.892\nsamples = 1520\nvalue = [0, 0, 70, 0, 0, 0, 55, 32, 8, 6, 32, 18, 7\n1, 8, 5, 0, 0, 246, 12, 234, 234, 120, 156, 36\n120, 120]"] ;
6 -> 7 ;
8 [label="concept:name_T15 Print document X request unlicensed <= 0.5\ngini = 0.884\nsamples = 1274\nvalue = [0, 0, 70, 0, 0, 0, 55, 32, 8, 6, 32, 18, 7\n1, 8, 5, 0, 0, 0, 12, 234, 234, 120, 156, 36\n120, 120]"] ;
7 -> 8 ;
9 [label="concept:name_T14 Determine document X request unlicensed <= 0.5\ngini = 0.876\nsamples = 1040\nvalue = [0, 0, 70, 0, 0, 0, 55, 32, 8, 6, 32, 18, 7\n1, 8, 5, 0, 0, 0, 12, 234, 0, 120, 156, 36\n120, 120]"] ;
8 -> 9 ;
10 [label="concept:name_T17 Check report Y to stop indication <= 0.5\ngini = 0.878\nsamples = 806\nvalue = [0, 0, 70, 0, 0, 0, 55, 32, 8, 6, 32, 18, 7\n1, 8, 5, 0, 0, 0, 12, 0, 0, 120, 156, 36, 120\n120]"] ;
9 -> 10 ;
11 [label="concept:name_T16 Report reasons to hold request <= 0.5\ngini = 0.869\nsamples = 650\nvalue = [0, 0, 70, 0, 0, 0, 55, 32, 8, 6, 32, 18, 7\n1, 8, 5, 0, 0, 0, 12, 0, 0, 120, 0, 36, 120\n120]"] ;
10 -> 11 ;
12 [label="concept:name_T19 Determine report Y to stop indication <= 0.5\ngini = 0.855\nsamples = 530\nvalue = [0, 0, 70, 0, 0, 0, 55, 32, 8, 6, 32, 18, 7\n1, 8, 5, 0, 0, 0, 12, 0, 0, 0, 0, 36, 120\n120]"] ;
11 -> 12 ;
13 [label="concept:name_T20 Print report Y to stop indication <= 0.5\ngini = 0.843\nsamples = 410\nvalue = [0, 0, 70, 0, 0, 0, 55, 32, 8, 6, 32, 18, 7\n1, 8, 5, 0, 0, 0, 12, 0, 0, 0, 0, 36, 0, 120]"] ;
12 -> 13 ;
14 [label="concept:name_T03 Adjust confirmation of receipt <= 0.5\ngini = 0.858\nsamples = 290\nvalue = [0, 0, 70, 0, 0, 0, 55, 32, 8, 6, 32, 18, 7\n1, 8, 5, 0, 0, 0, 12, 0, 0, 0, 0, 36, 0, 0]"] ;
13 -> 14 ;
15 [label="concept:name_T07-1 Draft intern advice aspect 1 <= 0.5\ngini = 0.854\nsamples = 220\nvalue = [0, 0, 0, 0, 0, 0, 55, 32, 8, 6, 32, 18, 7, 1\n8, 5, 0, 0, 0, 12, 0, 0, 0, 0, 36, 0, 0]"] ;
14 -> 15 ;
16 [label="concept:name_T18 Adjust report Y to stop indicition <= 0.5\ngini = 0.851\nsamples = 165\nvalue = [0, 0, 0, 0, 0, 0, 0, 32, 8, 6, 32, 18, 7, 1\n8, 5, 0, 0, 0, 12, 0, 0, 0, 0, 36, 0, 0]"] ;
15 -> 16 ;
17 [label="concept:name_T07-5 Draft intern advice aspect 5 <= 0.5\ngini = 0.834\nsamples = 129\nvalue = [0, 0, 0, 0, 0, 0, 0, 32, 8, 6, 32, 18, 7, 1\n8, 5, 0, 0, 0, 12, 0, 0, 0, 0, 0, 0, 0]"] ;
16 -> 17 ;
18 [label="concept:name_T07-2 Draft intern advice aspect 2 <= 0.5\ngini = 0.816\nsamples = 97\nvalue = [0, 0, 0, 0, 0, 0, 0, 32, 8, 6, 0, 18, 7, 1\n8, 5, 0, 0, 0, 12, 0, 0, 0, 0, 0, 0, 0]"] ;
17 -> 18 ;
19 [label="concept:name_T08 Draft and send request for advice <= 0.5\ngini = 0.833\nsamples = 65\nvalue = [0, 0, 0, 0, 0, 0, 0, 0, 8, 6, 0, 18, 7, 1\n8, 5, 0, 0, 0, 12, 0, 0, 0, 0, 0, 0, 0]"] ;
18 -> 19 ;
20 [label="concept:name_T13 Adjust document X request unlicensed <= 0.5\ngini = 0.827\nsamples = 47\nvalue = [0, 0, 0, 0, 0, 0, 0, 0, 8, 6, 0, 0, 7, 1\n8, 5, 0, 0, 0, 12, 0, 0, 0, 0, 0, 0, 0]"] ;
19 -> 20 ;
21 [label="concept:name_T09-3 Process or receive external advice from party 3 <= 0.5\ngini = 0.805\nsamples = 35\nvalue = [0, 0, 0, 0, 0, 0, 0, 0, 8, 6, 0, 0, 7, 1\n8, 5, 0, 0, 0, 0, 0, 0, 0, 0, 0, 0, 0]"] ;
20 -> 21 ;
22 [label="concept:name_T07-3 Draft intern advice hold for aspect 3 <= 0.5\ngini = 0.76\nsamples = 27\nvalue = [0, 0, 0, 0, 0, 0, 0, 0, 8, 6, 0, 0, 7, 1\n0, 5, 0, 0, 0, 0, 0, 0, 0, 0, 0, 0, 0]"] ;
21 -> 22 ;
23 [label="concept:name_T09-1 Process or receive external advice from party 1 <= 0.5\ngini = 0.693\nsamples = 19\nvalue = [0, 0, 0, 0, 0, 0, 0, 0, 0, 6, 0, 0, 7, 1\n0, 5, 0, 0, 0, 0, 0, 0, 0, 0, 0, 0, 0]"] ;
22 -> 23 ;
24 [label="concept:name_T07-4 Draft internal advice to hold for type 4 <= 0.5\ngini = 0.569\nsamples = 12\nvalue = [0, 0, 0, 0, 0, 0, 0, 0, 0, 6, 0, 0, 0, 1\n0, 5, 0, 0, 0, 0, 0, 0, 0, 0, 0, 0, 0]"] ;
23 -> 24 ;
25 [label="concept:name_T09-2 Process or receive external advice from party 2 <= 0.5\ngini = 0.278\nsamples = 6\nvalue = [0, 0, 0, 0, 0, 0, 0, 0, 0, 0, 0, 0, 0, 1\n0, 5, 0, 0, 0, 0, 0, 0, 0, 0, 0, 0, 0]"] ;
24 -> 25 ;
26 [label="gini = 0.0\nsamples = 5\nvalue = [0, 0, 0, 0, 0, 0, 0, 0, 0, 0, 0, 0, 0, 0\n0, 5, 0, 0, 0, 0, 0, 0, 0, 0, 0, 0, 0]"] ;
25 -> 26 ;
27 [label="gini = 0.0\nsamples = 1\nvalue = [0, 0, 0, 0, 0, 0, 0, 0, 0, 0, 0, 0, 0, 1\n0, 0, 0, 0, 0, 0, 0, 0, 0, 0, 0, 0, 0]"] ;
25 -> 27 ;
28 [label="gini = 0.0\nsamples = 6\nvalue = [0, 0, 0, 0, 0, 0, 0, 0, 0, 6, 0, 0, 0, 0\n0, 0, 0, 0, 0, 0, 0, 0, 0, 0, 0, 0, 0]"] ;
24 -> 28 ;
29 [label="gini = 0.0\nsamples = 7\nvalue = [0, 0, 0, 0, 0, 0, 0, 0, 0, 0, 0, 0, 7, 0\n0, 0, 0, 0, 0, 0, 0, 0, 0, 0, 0, 0, 0]"] ;
23 -> 29 ;
30 [label="gini = 0.0\nsamples = 8\nvalue = [0, 0, 0, 0, 0, 0, 0, 0, 8, 0, 0, 0, 0, 0\n0, 0, 0, 0, 0, 0, 0, 0, 0, 0, 0, 0, 0]"] ;
22 -> 30 ;
31 [label="gini = 0.0\nsamples = 8\nvalue = [0, 0, 0, 0, 0, 0, 0, 0, 0, 0, 0, 0, 0, 0\n8, 0, 0, 0, 0, 0, 0, 0, 0, 0, 0, 0, 0]"] ;
21 -> 31 ;
32 [label="gini = 0.0\nsamples = 12\nvalue = [0, 0, 0, 0, 0, 0, 0, 0, 0, 0, 0, 0, 0, 0\n0, 0, 0, 0, 0, 12, 0, 0, 0, 0, 0, 0, 0]"] ;
20 -> 32 ;
33 [label="gini = 0.0\nsamples = 18\nvalue = [0, 0, 0, 0, 0, 0, 0, 0, 0, 0, 0, 18, 0, 0\n0, 0, 0, 0, 0, 0, 0, 0, 0, 0, 0, 0, 0]"] ;
19 -> 33 ;
34 [label="gini = 0.0\nsamples = 32\nvalue = [0, 0, 0, 0, 0, 0, 0, 32, 0, 0, 0, 0, 0, 0\n0, 0, 0, 0, 0, 0, 0, 0, 0, 0, 0, 0, 0]"] ;
18 -> 34 ;
35 [label="gini = 0.0\nsamples = 32\nvalue = [0, 0, 0, 0, 0, 0, 0, 0, 0, 0, 32, 0, 0, 0\n0, 0, 0, 0, 0, 0, 0, 0, 0, 0, 0, 0, 0]"] ;
17 -> 35 ;
36 [label="gini = 0.0\nsamples = 36\nvalue = [0, 0, 0, 0, 0, 0, 0, 0, 0, 0, 0, 0, 0, 0\n0, 0, 0, 0, 0, 0, 0, 0, 0, 0, 36, 0, 0]"] ;
16 -> 36 ;
37 [label="gini = 0.0\nsamples = 55\nvalue = [0, 0, 0, 0, 0, 0, 55, 0, 0, 0, 0, 0, 0, 0\n0, 0, 0, 0, 0, 0, 0, 0, 0, 0, 0, 0, 0]"] ;
15 -> 37 ;
38 [label="gini = 0.0\nsamples = 70\nvalue = [0, 0, 70, 0, 0, 0, 0, 0, 0, 0, 0, 0, 0, 0\n0, 0, 0, 0, 0, 0, 0, 0, 0, 0, 0, 0, 0]"] ;
14 -> 38 ;
39 [label="gini = 0.0\nsamples = 120\nvalue = [0, 0, 0, 0, 0, 0, 0, 0, 0, 0, 0, 0, 0, 0\n0, 0, 0, 0, 0, 0, 0, 0, 0, 0, 0, 0, 120]"] ;
13 -> 39 ;
40 [label="gini = 0.0\nsamples = 120\nvalue = [0, 0, 0, 0, 0, 0, 0, 0, 0, 0, 0, 0, 0, 0\n0, 0, 0, 0, 0, 0, 0, 0, 0, 0, 0, 120, 0]"] ;
12 -> 40 ;
41 [label="gini = 0.0\nsamples = 120\nvalue = [0, 0, 0, 0, 0, 0, 0, 0, 0, 0, 0, 0, 0, 0\n0, 0, 0, 0, 0, 0, 0, 0, 120, 0, 0, 0, 0]"] ;
11 -> 41 ;
42 [label="gini = 0.0\nsamples = 156\nvalue = [0, 0, 0, 0, 0, 0, 0, 0, 0, 0, 0, 0, 0, 0\n0, 0, 0, 0, 0, 0, 0, 0, 0, 156, 0, 0, 0]"] ;
10 -> 42 ;
43 [label="gini = 0.0\nsamples = 234\nvalue = [0, 0, 0, 0, 0, 0, 0, 0, 0, 0, 0, 0, 0, 0\n0, 0, 0, 0, 0, 0, 234, 0, 0, 0, 0, 0, 0]"] ;
9 -> 43 ;
44 [label="gini = 0.0\nsamples = 234\nvalue = [0, 0, 0, 0, 0, 0, 0, 0, 0, 0, 0, 0, 0, 0\n0, 0, 0, 0, 0, 0, 0, 234, 0, 0, 0, 0, 0]"] ;
8 -> 44 ;
45 [label="gini = 0.0\nsamples = 246\nvalue = [0, 0, 0, 0, 0, 0, 0, 0, 0, 0, 0, 0, 0, 0\n0, 0, 0, 0, 246, 0, 0, 0, 0, 0, 0, 0, 0]"] ;
7 -> 45 ;
46 [label="gini = 0.0\nsamples = 264\nvalue = [0, 0, 0, 0, 0, 0, 0, 0, 0, 0, 0, 0, 0, 0\n0, 0, 0, 264, 0, 0, 0, 0, 0, 0, 0, 0, 0]"] ;
6 -> 46 ;
47 [label="gini = 0.0\nsamples = 1603\nvalue = [0, 0, 0, 0, 0, 0, 0, 0, 0, 0, 0, 0, 0, 0\n0, 0, 1603, 0, 0, 0, 0, 0, 0, 0, 0, 0, 0]"] ;
5 -> 47 ;
48 [label="gini = 0.0\nsamples = 1620\nvalue = [0, 0, 0, 0, 1620, 0, 0, 0, 0, 0, 0, 0, 0, 0\n0, 0, 0, 0, 0, 0, 0, 0, 0, 0, 0, 0, 0]"] ;
4 -> 48 ;
49 [label="gini = 0.0\nsamples = 1627\nvalue = [0, 0, 0, 1627, 0, 0, 0, 0, 0, 0, 0, 0, 0, 0\n0, 0, 0, 0, 0, 0, 0, 0, 0, 0, 0, 0, 0]"] ;
3 -> 49 ;
50 [label="gini = 0.0\nsamples = 1703\nvalue = [0, 1703, 0, 0, 0, 0, 0, 0, 0, 0, 0, 0, 0, 0\n0, 0, 0, 0, 0, 0, 0, 0, 0, 0, 0, 0, 0]"] ;
2 -> 50 ;
51 [label="gini = 0.0\nsamples = 1751\nvalue = [0, 0, 0, 0, 0, 1751, 0, 0, 0, 0, 0, 0, 0, 0\n0, 0, 0, 0, 0, 0, 0, 0, 0, 0, 0, 0, 0]"] ;
1 -> 51 ;
52 [label="gini = 0.0\nsamples = 1754\nvalue = [1754, 0, 0, 0, 0, 0, 0, 0, 0, 0, 0, 0, 0, 0\n0, 0, 0, 0, 0, 0, 0, 0, 0, 0, 0, 0, 0]"] ;
0 -> 52 [labeldistance=2.5, labelangle=-45, headlabel="False"] ;
}
