digraph Tree {
node [shape=box, fontname="helvetica"] ;
edge [fontname="helvetica"] ;
0 [label="Resource_Pete <= 0.5\ngini = 0.5\nsamples = 6\nvalue = [3, 3]"] ;
1 [label="Resource_Ellen <= 0.5\ngini = 0.48\nsamples = 5\nvalue = [3, 2]"] ;
0 -> 1 [labeldistance=2.5, labelangle=45, headlabel="True"] ;
2 [label="gini = 0.5\nsamples = 2\nvalue = [1, 1]"] ;
1 -> 2 ;
3 [label="gini = 0.444\nsamples = 3\nvalue = [2, 1]"] ;
1 -> 3 ;
4 [label="gini = 0.0\nsamples = 1\nvalue = [0, 1]"] ;
0 -> 4 [labeldistance=2.5, labelangle=-45, headlabel="False"] ;
}
